Language model created by QuickLM on Sun Feb 18 04:16:31 EST 2018
Copyright (c) 1996-2010 Carnegie Mellon University and Alexander I. Rudnicky

The model is in standard ARPA format, designed by Doug Paul while he was at MITRE.

The code that was used to produce this language model is available in Open Source.
Please visit http://www.speech.cs.cmu.edu/tools/ for more information

The (fixed) discount mass is 0.5. The backoffs are computed using the ratio method.
This model based on a corpus of 18 sentences and 20 words

\data\
ngram 1=20
ngram 2=36
ngram 3=18

\1-grams:
-0.7782 </s> -0.3010
-0.7782 <s> -0.2218
-2.0334 ADD_MARVEL_CHARACTER -0.2218
-2.0334 CHANGE_SIZE_TO_N -0.2218
-2.0334 COPY -0.2218
-2.0334 CUT -0.2218
-2.0334 DELETE -0.2218
-2.0334 FIND -0.2218
-2.0334 GO_TO_LINE -0.2218
-2.0334 HELLO_WORLD -0.2218
-2.0334 PASTE -0.2218
-2.0334 QUICK_OPEN -0.2218
-2.0334 REDO -0.2218
-2.0334 SEARCH -0.2218
-2.0334 SELECT_ALL -0.2218
-2.0334 STOP_LISTEN -0.2218
-2.0334 UNDO -0.2218
-2.0334 VAR_COUNT_EQUALS_ZERO -0.2218
-2.0334 WRITE_FOR_LOOP -0.2218
-2.0334 WRITE_RETURN_ZERO -0.2218

\2-grams:
-1.5563 <s> ADD_MARVEL_CHARACTER 0.0000
-1.5563 <s> CHANGE_SIZE_TO_N 0.0000
-1.5563 <s> COPY 0.0000
-1.5563 <s> CUT 0.0000
-1.5563 <s> DELETE 0.0000
-1.5563 <s> FIND 0.0000
-1.5563 <s> GO_TO_LINE 0.0000
-1.5563 <s> HELLO_WORLD 0.0000
-1.5563 <s> PASTE 0.0000
-1.5563 <s> QUICK_OPEN 0.0000
-1.5563 <s> REDO 0.0000
-1.5563 <s> SEARCH 0.0000
-1.5563 <s> SELECT_ALL 0.0000
-1.5563 <s> STOP_LISTEN 0.0000
-1.5563 <s> UNDO 0.0000
-1.5563 <s> VAR_COUNT_EQUALS_ZERO 0.0000
-1.5563 <s> WRITE_FOR_LOOP 0.0000
-1.5563 <s> WRITE_RETURN_ZERO 0.0000
-0.3010 ADD_MARVEL_CHARACTER </s> -0.3010
-0.3010 CHANGE_SIZE_TO_N </s> -0.3010
-0.3010 COPY </s> -0.3010
-0.3010 CUT </s> -0.3010
-0.3010 DELETE </s> -0.3010
-0.3010 FIND </s> -0.3010
-0.3010 GO_TO_LINE </s> -0.3010
-0.3010 HELLO_WORLD </s> -0.3010
-0.3010 PASTE </s> -0.3010
-0.3010 QUICK_OPEN </s> -0.3010
-0.3010 REDO </s> -0.3010
-0.3010 SEARCH </s> -0.3010
-0.3010 SELECT_ALL </s> -0.3010
-0.3010 STOP_LISTEN </s> -0.3010
-0.3010 UNDO </s> -0.3010
-0.3010 VAR_COUNT_EQUALS_ZERO </s> -0.3010
-0.3010 WRITE_FOR_LOOP </s> -0.3010
-0.3010 WRITE_RETURN_ZERO </s> -0.3010

\3-grams:
-0.3010 <s> ADD_MARVEL_CHARACTER </s>
-0.3010 <s> CHANGE_SIZE_TO_N </s>
-0.3010 <s> COPY </s>
-0.3010 <s> CUT </s>
-0.3010 <s> DELETE </s>
-0.3010 <s> FIND </s>
-0.3010 <s> GO_TO_LINE </s>
-0.3010 <s> HELLO_WORLD </s>
-0.3010 <s> PASTE </s>
-0.3010 <s> QUICK_OPEN </s>
-0.3010 <s> REDO </s>
-0.3010 <s> SEARCH </s>
-0.3010 <s> SELECT_ALL </s>
-0.3010 <s> STOP_LISTEN </s>
-0.3010 <s> UNDO </s>
-0.3010 <s> VAR_COUNT_EQUALS_ZERO </s>
-0.3010 <s> WRITE_FOR_LOOP </s>
-0.3010 <s> WRITE_RETURN_ZERO </s>

\end\